<?xml version="1.0"?>
<opencv_storage>
<cascade>
  <stageType>BOOST</stageType>
  <featureType>LBP</featureType>
  <height>24</height>
  <width>48</width>
  <stageParams>
    <boostType>GAB</boostType>
    <minHitRate>9.9500000476837158e-01</minHitRate>
    <maxFalseAlarm>5.0000000000000000e-01</maxFalseAlarm>
    <weightTrimRate>9.4999999999999996e-01</weightTrimRate>
    <maxDepth>1</maxDepth>
    <maxWeakCount>100</maxWeakCount></stageParams>
  <featureParams>
    <maxCatCount>256</maxCatCount>
    <featSize>1</featSize></featureParams>
  <stageNum>7</stageNum>
  <stages>
    <!-- stage 0 -->
    <_>
      <maxWeakCount>3</maxWeakCount>
      <stageThreshold>6.1311401426792145e-02</stageThreshold>
      <weakClassifiers>
        <_>
          <internalNodes>
            0 -1 9 -268472457 1853833215 -268554305 1325346727
            1979524980 -163841 2113866623 2147450751</internalNodes>
          <leafValues>
            -3.7942665815353394e-01 9.6453303098678589e-01</leafValues></_>
        <_>
          <internalNodes>
            0 -1 19 -4718993 -1900972290 1878835129 1308080942 -53257
            -33652737 -1342177437 2146959103</internalNodes>
          <leafValues>
            -3.4177446365356445e-01 9.7204691171646118e-01</leafValues></_>
        <_>
          <internalNodes>
            0 -1 14 -1628504129 -1610760321 -1074856144 771751933
            -1883468746 -318832641 784248354 788524287</internalNodes>
          <leafValues>
            -5.3130882978439331e-01 8.4795635938644409e-01</leafValues></_></weakClassifiers></_>
    <!-- stage 1 -->
    <_>
      <maxWeakCount>4</maxWeakCount>
      <stageThreshold>-8.6084240674972534e-01</stageThreshold>
      <weakClassifiers>
        <_>
          <internalNodes>
            0 -1 2 -270012457 -1363268048 -285282578 1857695266
            -134250627 -268992969 -33587209 2147442291</internalNodes>
          <leafValues>
            -4.8062014579772949e-01 9.5598530769348145e-01</leafValues></_>
        <_>
          <internalNodes>
            0 -1 13 -838860969 -1082130947 -1346371802 1073741819
            -1342259659 -16842753 1056937216 749731838</internalNodes>
          <leafValues>
            -5.5339562892913818e-01 9.1908508539199829e-01</leafValues></_>
        <_>
          <internalNodes>
            0 -1 11 -1023554356 -16973827 1853751212 -587211027
            -654311930 -855638017 -855639034 1518064895</internalNodes>
          <leafValues>
            -6.0550308227539062e-01 8.3653020858764648e-01</leafValues></_>
        <_>
          <internalNodes>
            0 -1 8 -604285955 1862103039 -268472453 -286298369
            -574728331 -134250497 2130673277 2147384951</internalNodes>
          <leafValues>
            -6.6335678100585938e-01 7.3155033588409424e-01</leafValues></_></weakClassifiers></_>
    <!-- stage 2 -->
    <_>
      <maxWeakCount>4</maxWeakCount>
      <stageThreshold>-7.3785668611526489e-01</stageThreshold>
      <weakClassifiers>
        <_>
          <internalNodes>
            0 -1 7 -290460113 -298078686 -269586706 -294506976
            2147446783 -1098940554 2147434367 2139051891</internalNodes>
          <leafValues>
            -5.0622409582138062e-01 9.4993370771408081e-01</leafValues></_>
        <_>
          <internalNodes>
            0 -1 0 439608379 918240891 1069514555 -835277065 -1354826373
            1064828927 2143109042 2147217267</internalNodes>
          <leafValues>
            -4.9802583456039429e-01 9.3711972236633301e-01</leafValues></_>
        <_>
          <internalNodes>
            0 -1 17 1322500427 402484479 1325281127 1606107133 234835316
            -369131521 -1661481428 1610600315</internalNodes>
          <leafValues>
            -4.9518769979476929e-01 8.7059396505355835e-01</leafValues></_>
        <_>
          <internalNodes>
            0 -1 10 -647507425 -1740517375 -528400171 -1714593765
            -1878945791 -1454763744 -2115926016 231309683</internalNodes>
          <leafValues>
            -6.9457685947418213e-01 7.3433780670166016e-01</leafValues></_></weakClassifiers></_>
    <!-- stage 3 -->
    <_>
      <maxWeakCount>3</maxWeakCount>
      <stageThreshold>-2.8234890103340149e-01</stageThreshold>
      <weakClassifiers>
        <_>
          <internalNodes>
            0 -1 1 -1426003678 -466522333 1064234918 1856470890
            -1087176713 -700743681 1073117111 2138570507</internalNodes>
          <leafValues>
            -4.1967213153839111e-01 9.7256100177764893e-01</leafValues></_>
        <_>
          <internalNodes>
            0 -1 12 -51131171 -587202562 -16782175 -325190227 243221568
            -553648673 -1392746970 1792069583</internalNodes>
          <leafValues>
            -6.0757666826248169e-01 9.2672252655029297e-01</leafValues></_>
        <_>
          <internalNodes>
            0 -1 5 -536930967 -32769 -268554377 -268439686 -35776775
            -134250497 -537131585 2080340535</internalNodes>
          <leafValues>
            -6.4733320474624634e-01 8.8576912879943848e-01</leafValues></_></weakClassifiers></_>
    <!-- stage 4 -->
    <_>
      <maxWeakCount>3</maxWeakCount>
      <stageThreshold>-2.7259838581085205e-01</stageThreshold>
      <weakClassifiers>
        <_>
          <internalNodes>
            0 -1 16 654982233 1073594238 721419042 -1548894275
            1040187318 -1 -1342177486 456973684</internalNodes>
          <leafValues>
            -4.9319729208946228e-01 9.7468781471252441e-01</leafValues></_>
        <_>
          <internalNodes>
            0 -1 18 40716039 1610051581 2130505490 -336558083 1190948214
            2130673663 -1090642431 1396662085</internalNodes>
          <leafValues>
            -5.2348643541336060e-01 9.8064911365509033e-01</leafValues></_>
        <_>
          <internalNodes>
            0 -1 3 1346552116 -2147483648 -2147483647 1342177862
            -2147479544 -2003828727 4 1799508000</internalNodes>
          <leafValues>
            -7.6005023717880249e-01 9.0302568674087524e-01</leafValues></_></weakClassifiers></_>
    <!-- stage 5 -->
    <_>
      <maxWeakCount>2</maxWeakCount>
      <stageThreshold>1.7061348259449005e-01</stageThreshold>
      <weakClassifiers>
        <_>
          <internalNodes>
            0 -1 15 12 0 0 268521728 3 -2147483648 -2147450880
            1225197570</internalNodes>
          <leafValues>
            -6.8801313638687134e-01 1.</leafValues></_>
        <_>
          <internalNodes>
            0 -1 6 1073938570 33554432 8 655616 136 134217729 8
            1209204736</internalNodes>
          <leafValues>
            -8.2938653230667114e-01 9.7581112384796143e-01</leafValues></_></weakClassifiers></_>
    <!-- stage 6 -->
    <_>
      <maxWeakCount>1</maxWeakCount>
      <stageThreshold>1.</stageThreshold>
      <weakClassifiers>
        <_>
          <internalNodes>
            0 -1 4 0 0 0 0 2064 0 0 268435456</internalNodes>
          <leafValues>
            -1. 1.</leafValues></_></weakClassifiers></_></stages>
  <features>
    <_>
      <rect>
        0 0 2 7</rect></_>
    <_>
      <rect>
        0 2 3 7</rect></_>
    <_>
      <rect>
        0 12 3 4</rect></_>
    <_>
      <rect>
        0 14 2 2</rect></_>
    <_>
      <rect>
        0 15 1 3</rect></_>
    <_>
      <rect>
        0 18 2 2</rect></_>
    <_>
      <rect>
        0 18 6 2</rect></_>
    <_>
      <rect>
        1 11 3 4</rect></_>
    <_>
      <rect>
        1 18 2 2</rect></_>
    <_>
      <rect>
        2 15 2 3</rect></_>
    <_>
      <rect>
        27 9 7 5</rect></_>
    <_>
      <rect>
        37 4 3 6</rect></_>
    <_>
      <rect>
        39 10 3 3</rect></_>
    <_>
      <rect>
        39 12 2 4</rect></_>
    <_>
      <rect>
        39 12 3 4</rect></_>
    <_>
      <rect>
        40 1 2 2</rect></_>
    <_>
      <rect>
        41 21 2 1</rect></_>
    <_>
      <rect>
        42 0 2 6</rect></_>
    <_>
      <rect>
        44 8 1 4</rect></_>
    <_>
      <rect>
        45 1 1 4</rect></_></features></cascade>
</opencv_storage>
